-0.144063466702166,0.651152984418441,0.262298802933424,-0.556267739703879,0.329183379639202,0.196243411524862,0.394313817040255,0.16217166450788,-0.230855492345178,-0.503677520048363,0.137316089047503,-0.560514988359951,-0.417914577818705,-0.794544555972731,0.422232051201418,0.30145062307274,-0.00400367365315054,0.342387422022367,0.20094101952214,-0.215968245579572,-0.750600658524638,-0.0236037910151422,0.390275800454916,-0.401296943003537,0.152449450914885,-0.516809423816773,-0.824859424751577,0.395730047320487,-0.655895572047313,-0.526206365020072,-0.65145291312837,0.49197130851731,-0.0294100804534051,0.183044563678526,0.397917312820298,0.0795074371260024,0.323158611521385,0.695813556710194,-0.83880846017403,0.0539956159004963,0.4851055196305,-0.287411503263259,-0.212799230480075,-0.562434913783745,0.769761798802484,0.73018169909793,-0.0796149491719335,0.729410425709567,-0.0397003738887185,-0.596273158951083,0.00961973322669329,0.00550723623653093,-0.0965971055229703,0.416368925687338,-0.718155811487299,0.218025091598816,0.0890441688202691,-0.613599386081028,0.917755718508761,0.13783414281768,0.155667565993955,0.0664299990641185,0.110852547578094,0.122925668140281,0.146768655412585,0.0480428912265521,-0.0534030199588981,0.0800003268239911,0.157168994427249,0.172669594678483,0.0790911499334629,-0.0859211631705251,0.151645284278769,0.0913937326802953,-0.0674987240957237,-0.128722782975328,-0.0913686833771457,0.0578414517108378,0.130659200463454,-0.0688504469620893,-0.0360648338620008,-0.0807485534363717,0.0897643598892018,-0.0436468279930063,-0.0929937905035972,0.0595355614253014,0.156698005235838,0.108154346434822,0.0164268332784658,-0.0441706334860048,0.0211747016488395,0.0314652022099441,-0.0903917976298136,-0.148270322636485,-0.089069720076513,0.0252731154997966,-0.0220391999248374,0.13846458169141,-0.0140841964472693,-0.00767056815073323,0.144417028205737,-0.068704298971984,-0.100577548625492,0.0766957529285257,0.0520912918004732,0.0985116452872535,0.0849268408376757,-0.169242842989512,0.159519833408732,-0.137766503388838,0.0981034035438802,-0.0719763965590207,0.129524196052579,0.0869798103641966,0.124634122095703,-0.0763138167474377,0.121060250713591,-0.000816333422207591,0.163284756421008,0.0294540994759418,-0.0489813597439516,-0.127941186208437,0.10873089840904,0.130375980773081,-0.0893284647567519,0.126136151960293,0.022028877101889,-0.123849505376114,-0.133555544337839,0.11991154932892,0.107552317417674,-0.104443432829722,-0.0377455561622954,0.0642925509408273,-0.0661024150103704,0.105241814001723,0.118278565426509,-0.0855384105229273,0.0371888993898221,-0.0821660765842237,-0.012711842674229,0.0302046786035007,0.0211654198433257,-0.0611221047674983,-0.0770235271802622,-0.0655181998666938,0.012211848014152,0.0278809026029502,-0.0573039351067964,-0.104042787766486,0.102778833494175,0.122219915655909,0.0178245653301956,-0.153596528112294,-0.106532332626116,0.0761977347002303,-0.140863909052835,-0.157959324704455,-0.133911971440667,-0.0146710561716932,0.0625858178292706,-0.0420925448107448,0.125764661258619,0.107649198240839,-0.107099286286869,-0.0206462078739998,0.225034885764541,-0.280931719213606,-0.0621180273555717,-0.121617183254221,0.037463975102292,-0.336713654171812,-0.0571264205376792,0.0801383921706297,-0.216680609147768,-0.0467810054900284,-0.070181143040236,-0.0852312788665847,0.177885300291242,-0.0570382739900677,0.0658935111221216,0.00646285847289955,-0.172764987852178,-0.0833893680393024,-0.129405267685412,0.0788043832986405,0.15571223633796,-0.196601075019296,0.0772631505190931,0.0685598709097851,0.0177715603000884,0.0542487056622755,0.0260662062273148,-0.0500088468048029,-0.0436220477480998,0.0502887142001361,-0.0600331000981509,0.137396790695641,-0.11254575343779,-0.0730391447831814,0.08095862483354,-0.0777137782539366,0.0174585383456159,-0.0683613571746518,-0.178974765221111,0.126739487714968,-0.0383384565311712,0.0424271810665959,0.0160315842627816,0.0451774666807775,-0.0496341477773128,0.0736630475228134,0.0670543104629065,0.0810253147151071,-0.0330870208380246,-0.0767931897722067,-0.0599367702822372,0.01320402755813,0.0980061223306418,-0.00201228029062263,0.0973191631362496,0.036088912249603,0.0345246201990697,-0.0609660795740188,-0.139994489974409,-0.0965198517112128,0.0773752671131472,-0.13889222906332,-0.0708453760198263,0.0797983833247722,0.135386494177229,0.0551532809562457,-0.0190629217463038,0.032715530178152,-0.0370110286795561,-0.00775497538626752,0.0350318685233959,0.00705548167004253,0.0639958722800099,-0.032196186471039,-0.11309079234404,-0.0259128456395898,-0.00801904722440432,0.0222076949763432,0.103216165420185,-0.104632233984735,-0.0977560223478405,0.12415169951028,-0.112037383329882,-0.0562295097756073,-0.0500567429467688,-0.133805889822053,-0.126709117024839,0.0709289315461017,-0.152930634254291,-0.158262284637625,-0.172111541667352,0.0339973986675282,0.0637529657109846,-0.0794907413840198,-0.102924885226724,0.132867300214353,0.170395052147596,-0.120519020996907,0.113394203882225,-0.0187885509330998,-0.0932666274373209,-0.154792161547991,-0.0716210118495544,0.000676576563369672,-0.0272125763465945,0.0730832377911034,-0.11302840880926,0.0919881915590249,-0.0292107667377234,-0.118911790274232,0.0905356119855695,-0.0422979365717567,-0.09377971972398,-0.0481623402170753,0.079986978783149,0.044435413287539,-0.0557877491258468,-0.0885819626399484,-0.135051021908075,-0.125953852485221,-0.0600730761350388,-0.0456550075735362,0.0390888189980629,-0.134597528864082,0.0302259976417203,-0.0247293019970043,-0.0880086899858304,0.168617790114987,0.155631433439492,-0.141734321290426,-0.0523770683174189,-0.0942638752438726,-0.115847525854647,-0.0655497335267427,-1.00165294647073,-0.0279352321585956,0.153389958137613,0.0107665179273351,-0.44421640635087,-0.0255103770864945,0.547813135225498,0.911898980283932,-0.835185931186076,-0.425229808484693,0.154976884994251,-0.0984642943717882,0.292737885096745,-0.290419978831913,0.335166133818514,-0.616069900666141,
