-0.755571076461866,0.350528862291717,0.45245226828562,-0.611084306536363,0.26251354245347,0.0989018686375781,0.891547700920435,0.65194235344593,-0.507624435837855,0.513629698544279,-0.465237085118598,0.172553075799305,-0.507026783785886,0.543924116427605,-0.00433280809045746,-0.191018799613071,-0.137273240340701,0.273098210293517,0.11802830758121,-0.373637130560082,-0.375720207381761,0.304316077694047,-0.624555835323865,-0.291221116377184,0.783109736598774,-0.732341298146268,-0.657025842393977,0.350130741231868,-0.77666240666844,-0.209797018782635,-0.219768484797359,0.326312644027629,0.478839010967975,-0.0479412027808344,0.309696364972114,0.373904414753633,0.484722748929681,-0.0492326276842094,-1.13122809373325,-0.680708621025443,-0.551468739919116,0.100998465706329,-0.421580109098673,-0.633658107625109,-0.797814839334023,0.350267918132622,0.69935961056757,-0.295647623826263,0.0903222896357164,0.676587003555055,-0.0146094561000682,0.547075340272403,0.145636347850462,0.726082164488415,-0.371496592848645,0.306137202089675,-0.377449585762499,0.497996979803304,0.114466589133457,-0.165815750617332,-0.101358939724611,-0.0932346194910101,0.0885333058565638,0.0224791254797084,0.0356624037927617,-0.161785859662644,0.127767996905549,-0.125146747730544,0.0389601132452925,-0.0634316752898128,0.0728655901683133,-0.00784149783598294,-0.0639978749259217,-0.133700996905624,-0.0299440824350939,0.154684911395283,0.0705638729583228,-0.0188730237393824,-0.125117203108063,0.14351700410845,-0.103020516329818,-0.0222854664310252,0.188923353039638,-0.0593402828245091,-0.158942199615699,0.0977367764539613,0.100248590760297,-0.0317311609133604,-0.269877661619653,0.0466540914106354,-0.100317647421381,-0.171967722868518,0.0428563858923969,0.0792548717116866,-0.04079406198758,-0.157529469982009,-0.0954429388890741,-0.147909989261767,-0.0455437419405226,-0.0975759453698954,-0.139779553183212,-0.0569094283827384,0.0798031049432935,-0.16851470491517,0.0886097707028533,0.0615657379033775,0.0100304651873793,-0.0211589569549375,0.134054885950545,0.0190289925724246,0.0696072023256774,-0.0927973302820972,0.102549991191155,0.153906825586945,0.0450977196330297,0.0537059482957378,-0.00617378693379067,0.0574613720262505,0.1615062370211,-0.103363136690361,0.056029976148748,0.012421067363374,0.104037496597482,-0.188821539753731,0.0471422890401288,0.0696909745271539,0.0968376350361048,-0.0860389505783928,-0.0748039207896317,0.0731569519926408,0.0544085643764502,0.124413890487968,-0.00949599883476506,0.0695065431969595,-0.0742096603791495,-0.148999996278463,0.034498959151515,-0.0770076687478334,0.17782003653196,-0.207840494618829,0.00733371099241847,-0.00650361251215113,-0.0196134127455717,0.139105217474473,-0.077029960715854,0.0300684721923149,0.165337999755982,0.00884900342589065,-0.182428105676731,0.0675426856684952,0.102768317410553,0.0528804485188126,-0.237158739751614,-0.143256717275228,-0.0952491506881801,-0.154871059945273,0.0793739859452803,0.0325385708534646,-0.0222573092803286,-0.151098149209142,0.0351490897626212,-0.0211175224337856,-0.0355997832020813,0.131779271643764,0.0608954594764156,0.0502017090851774,0.0198211982364107,-0.0367184086195464,0.0320044982198884,0.0400330229970573,-0.0720843142793903,0.0118337997012429,0.103339996514969,-0.149562514295628,0.161596842824848,0.0706245949212541,0.143852919779548,-0.0278597938392399,-0.0620078922952778,-0.033686259729931,-0.129885038102086,0.0497520825930088,-0.0723481518236983,-0.0851739121393313,-0.0953346493795052,0.0412505159395216,0.127587255963726,0.0282268506277789,0.0805492575202654,-0.201186506658693,0.108237233190902,0.175639309158325,0.0685789039505792,0.162485058781788,0.0312037763947179,-0.0379844425300634,-0.244512076384522,-0.0319404361510508,0.291966237262768,-0.152788440920271,0.148924764613639,-0.0685223070873101,-0.117230402351243,0.194364065788764,-0.154533430407435,-0.199147122944515,-0.0670790065119763,-0.130415519785904,-0.0616277928322049,0.0102879237980747,-0.053502999333976,-0.072426634504912,-0.131318192318771,0.0982848860025623,0.00259914092666268,0.0419384967707767,-0.0539945869484988,-0.112617970860349,-0.0117689055607686,-0.225717454506133,-0.0953115036661752,-0.0829216007283195,-0.163424602865466,0.0314788855463624,0.0615054050495706,-0.0171360308055479,0.00502217659598427,-0.142402576076542,-0.0334186108245957,-0.0356773342834285,-0.161758344424583,0.0870701484592902,-0.173743599610409,-0.103603995185237,-0.0694928570034193,0.0373515486768548,0.207895552992859,-0.120590011854317,-0.210006651806151,-0.0169177876576892,-0.0677313530949862,-0.092778297344535,-0.0932260593391092,-0.108915763555144,0.035440542653095,-0.0752117695146782,-0.180619860175086,0.00832893723728166,-0.192227253761859,-0.183556309345192,-0.0877105588111965,-0.162990314006428,0.188820928442924,0.13483162266344,-0.1494569270788,0.0550530849149973,0.108778079911358,-0.0600837675702338,0.0264893566001649,0.11947223582462,-0.00230730751952955,0.0958631603638333,-0.0514678256856972,-0.032083753210861,-0.0391356104719285,-0.0661143159341262,0.171333545362463,-0.177496304535536,0.034973254941134,0.0593075270856869,-0.0613163932286627,0.155963227725778,0.0924079736188618,0.100280070192368,-0.124326596086814,-0.167606546561714,0.00764684127439422,0.175606507507984,-0.093811032627848,0.0596032831882862,-0.0713362122455264,-0.0302531352928453,0.0870364545651827,-0.10884144825329,-0.0235022233156279,0.185242667094213,0.115969530511786,0.196307405307589,-0.0206912750274451,-0.157267155348911,-0.190073047620246,0.161886404565595,0.00364180635833917,-0.0788177458983133,-0.0478623086013767,-0.102022108390785,0.112125324420702,0.214980380492218,-0.0971258889399317,-0.116266446984542,-0.683145530644522,0.966903168588623,0.0402575186039595,0.147232356747943,0.328178257502039,0.807195468239489,0.208403148585274,-0.11564130774131,-0.865103045348176,0.451215488225837,-0.214101908200127,0.0763908542958308,-0.414730495369546,-0.765038197280943,1.00955666080628,-0.199407963749664,
